{
  "model": "two-layer MLP navigation policy",
  "actions": [
    "STAY",
    "NORTH",
    "SOUTH",
    "EAST",
    "WEST"
  ],
  "feature_columns": [
    "time_step_norm",
    "observed_robot_x_norm",
    "observed_robot_y_norm",
    "target_x_norm",
    "target_y_norm",
    "goal_dx_norm",
    "goal_dy_norm",
    "distance_to_goal_norm",
    "local_free_north",
    "local_free_south",
    "local_free_east",
    "local_free_west",
    "sensor_confidence",
    "localization_uncertainty",
    "path_blocked_score",
    "obstacle_proximity",
    "trajectory_deviation",
    "task_progress_stagnation",
    "risk_score"
  ],
  "scaler_mean": [
    0.16428571428571426,
    0.6375871459694991,
    0.24378103956228955,
    0.9411764705882354,
    0.9090909090909088,
    0.3035893246187364,
    0.6653098695286196,
    0.44642857142857145,
    0.3680555555555556,
    0.7800925925925926,
    0.625,
    0.9444444444444444,
    0.9605208333333336,
    0.0828125,
    0.006944444444444444,
    0.8715277777777778,
    0.07999999999999999,
    0.0,
    0.16001041666666668
  ],
  "scaler_scale": [
    0.09888837932045326,
    0.30411062894409513,
    0.22818480996763932,
    1.0,
    1.0,
    0.30411062894409513,
    0.22818480996763935,
    0.2472209483011332,
    0.4822765426394351,
    0.4141837026909195,
    0.4841229182759271,
    0.2290614236454256,
    0.07854297910044042,
    0.10670526441962042,
    0.08304347738264861,
    0.02054194369131811,
    1.0,
    1.0,
    0.030526267647602374
  ],
  "layers": [
    {
      "weight": [
        [
          0.04535846412181854,
          -0.02347908727824688,
          0.061575260013341904,
          -0.000719820091035217,
          0.001956895226612687,
          -0.2416663020849228,
          -0.1837511956691742,
          0.10822917520999908,
          0.016002079471945763,
          -0.33235156536102295,
          0.22520627081394196,
          0.0025788103230297565,
          0.22290857136249542,
          -0.04605089873075485,
          -0.10192449390888214,
          -0.2929845452308655,
          -0.0005962745635770261,
          0.0005797279882244766,
          -0.12888765335083008
        ],
        [
          0.004595576785504818,
          0.18377554416656494,
          -0.05649322643876076,
          0.001009732368402183,
          0.0007494083256460726,
          -0.10360667109489441,
          -0.30694183707237244,
          0.06623165309429169,
          0.25907060503959656,
          0.35891252756118774,
          -0.31524375081062317,
          0.0014408864080905914,
          -0.05863494798541069,
          -0.20861224830150604,
          0.014390558004379272,
          0.23501110076904297,
          0.0012595868902280927,
          0.00019742277800105512,
          -0.29596108198165894
        ],
        [
          0.20205068588256836,
          0.23221659660339355,
          0.11942484229803085,
          8.682705811224878e-05,
          0.00066415622131899,
          0.024409225210547447,
          -0.19500547647476196,
          -0.07474678009748459,
          -0.07169358432292938,
          0.1794811338186264,
          -0.3630974292755127,
          -0.18325117230415344,
          -0.1858281046152115,
          -0.2627929151058197,
          0.10341931879520416,
          0.3963332772254944,
          -0.0004449689877219498,
          0.0005870582535862923,
          0.05551949888467789
        ],
        [
          -0.031901583075523376,
          0.16628989577293396,
          0.06085123121738434,
          0.0022056589368730783,
          -0.00016693412908352911,
          0.05528676509857178,
          -0.1012704074382782,
          -0.05908956006169319,
          0.1411244422197342,
          0.25425001978874207,
          -0.3893352448940277,
          -0.014958031475543976,
          0.27631649374961853,
          0.0005302879144437611,
          -0.22764454782009125,
          0.28750187158584595,
          0.0005834281910210848,
          -0.0017750145634636283,
          -0.1459227055311203
        ],
        [
          0.12353896349668503,
          0.30222949385643005,
          0.0265252273529768,
          -0.00030500031425617635,
          0.00025479518808424473,
          -0.017358846962451935,
          -0.31713637709617615,
          -0.14219515025615692,
          0.3145199716091156,
          0.35243234038352966,
          -0.0503203421831131,
          0.20223087072372437,
          0.11932814866304398,
          -0.24846892058849335,
          -0.054844338446855545,
          -0.14309360086917877,
          -0.00015630955749657005,
          0.0014401020016521215,
          -0.08339940756559372
        ],
        [
          -0.11191701889038086,
          0.026312172412872314,
          -0.28628993034362793,
          -0.0007979758665896952,
          -0.0005075663793832064,
          0.1858101338148117,
          0.28714388608932495,
          0.06530836224555969,
          -0.181855708360672,
          -0.404908686876297,
          0.2097642868757248,
          0.24233365058898926,
          0.30764901638031006,
          -0.07413213700056076,
          -0.08119699358940125,
          -0.2516111135482788,
          0.00033861189149320126,
          -0.0012156300945207477,
          -0.14545167982578278
        ],
        [
          -0.25932827591896057,
          0.035382166504859924,
          -0.0013534649042412639,
          -0.0004788639780599624,
          0.0005947555182501674,
          0.09993284940719604,
          0.3422302305698395,
          0.26284608244895935,
          -0.2880989611148834,
          -0.22181633114814758,
          0.2608794867992401,
          -0.1336304247379303,
          -0.11381378024816513,
          0.1905905157327652,
          -0.04473629966378212,
          0.12203618884086609,
          -0.0006090139504522085,
          -0.0021021172869950533,
          -0.09481992572546005
        ],
        [
          -0.185895174741745,
          -0.17910002171993256,
          0.10126878321170807,
          0.0022807596251368523,
          -0.0010807454818859696,
          -0.02516620047390461,
          0.20944572985172272,
          0.24650540947914124,
          -0.2541004419326782,
          -0.4061641991138458,
          0.12327326089143753,
          -0.036614760756492615,
          0.009131302125751972,
          -0.25207284092903137,
          -0.15885388851165771,
          0.24381029605865479,
          6.104979547671974e-05,
          7.589341839775443e-05,
          -0.17728231847286224
        ],
        [
          0.07186335325241089,
          0.14473743736743927,
          0.18502087891101837,
          0.0013333256356418133,
          -0.0003163183864671737,
          -0.2967538833618164,
          0.014056803658604622,
          -0.273359477519989,
          0.10495221614837646,
          0.03690925985574722,
          -0.2364838868379593,
          0.2653352618217468,
          -0.013764135539531708,
          -0.03269210457801819,
          0.023682808503508568,
          0.04409857094287872,
          -0.0009292663307860494,
          -0.0006703539984300733,
          0.24663960933685303
        ],
        [
          0.09291919320821762,
          0.26768040657043457,
          0.2418607473373413,
          -0.00041600404074415565,
          0.002290957374498248,
          -0.05179254338145256,
          -0.007799413986504078,
          -0.05645078793168068,
          0.16772110760211945,
          0.4161500632762909,
          -0.3480222225189209,
          -0.054236967116594315,
          0.1445637047290802,
          -0.2969191372394562,
          -0.07410136610269547,
          0.07732807844877243,
          -0.00032098463270813227,
          -8.150398934958503e-05,
          0.16808165609836578
        ],
        [
          0.2002197653055191,
          -0.03399055823683739,
          0.3256185054779053,
          0.0007910525891929865,
          0.0007231154013425112,
          -0.0071130977012217045,
          0.02430945262312889,
          -0.11721303313970566,
          0.3068407475948334,
          0.2703823149204254,
          -0.05448472872376442,
          -0.12422465533018112,
          0.013594436459243298,
          -0.20272482931613922,
          -0.10423708707094193,
          0.25976210832595825,
          -0.00046475743874907494,
          -0.0006014483515173197,
          -0.20086203515529633
        ],
        [
          -0.06163916736841202,
          0.2223946899175644,
          -0.1903448849916458,
          1.83530428330414e-05,
          -0.0010550710139796138,
          0.1042294055223465,
          0.21082939207553864,
          -0.048468101769685745,
          -0.3140755295753479,
          0.3253958225250244,
          0.3664698898792267,
          -0.38232889771461487,
          -0.25243139266967773,
          0.02127470262348652,
          0.09424044191837311,
          0.2139003723859787,
          0.0010242093121632934,
          -0.0009920840384438634,
          0.06836827844381332
        ],
        [
          0.12949572503566742,
          0.14458349347114563,
          0.2948668599128723,
          0.0010774385882541537,
          -0.000758228125050664,
          -0.2868601381778717,
          -0.28003260493278503,
          0.07866719365119934,
          0.34574082493782043,
          -0.003944009076803923,
          -0.30203500390052795,
          0.2172616422176361,
          -0.05303573980927467,
          0.21760836243629456,
          0.20038537681102753,
          0.26545751094818115,
          -0.00034215778578072786,
          -0.00028093717992305756,
          0.1157737597823143
        ],
        [
          -0.3106662929058075,
          -0.20665214955806732,
          -0.29897820949554443,
          -0.002040556166321039,
          -0.0019849378149956465,
          0.12076114863157272,
          0.20779858529567719,
          0.21206098794937134,
          0.014222171157598495,
          -0.37175554037094116,
          0.011141020804643631,
          0.13824793696403503,
          -0.09707694500684738,
          0.14986266195774078,
          -0.185207337141037,
          -0.04643356427550316,
          0.00021405352163128555,
          0.001990724354982376,
          -0.011704434640705585
        ],
        [
          0.07063956558704376,
          0.15923716127872467,
          0.2330707609653473,
          0.00029189634369686246,
          0.0031117424368858337,
          -0.3098345696926117,
          -0.028882237151265144,
          -0.12676432728767395,
          0.038489002734422684,
          0.31227871775627136,
          0.02077430672943592,
          0.10533048957586288,
          -0.14517614245414734,
          0.08614227175712585,
          -0.17038017511367798,
          0.1982986032962799,
          0.0007993284962140024,
          0.0023135889787226915,
          -0.0008520110277459025
        ],
        [
          0.053885456174612045,
          0.15117213129997253,
          -0.01417110301554203,
          0.00048149822396226227,
          0.0021493954118341208,
          -0.14374159276485443,
          0.10149349272251129,
          -0.11193619668483734,
          -0.0035323265474289656,
          0.3242194950580597,
          -0.055395450443029404,
          0.20806804299354553,
          -0.2047753632068634,
          0.20175330340862274,
          -0.12351655960083008,
          0.23828087747097015,
          0.0015864864690229297,
          0.0027864864096045494,
          0.2762897312641144
        ],
        [
          -0.14635542035102844,
          -0.02393391542136669,
          -0.12801600992679596,
          0.0007244927110150456,
          -0.00047661602729931474,
          0.18391218781471252,
          0.22104300558567047,
          -0.1086159348487854,
          -0.17570994794368744,
          0.18512015044689178,
          0.35740533471107483,
          0.02072129212319851,
          -0.11926008760929108,
          -0.2552366554737091,
          0.040332816541194916,
          -0.35022515058517456,
          -0.00043068244121968746,
          0.0013631369220092893,
          -0.17277628183364868
        ],
        [
          -0.037784818559885025,
          -0.08673269301652908,
          0.25766152143478394,
          0.0006621945067308843,
          0.00029085585265420377,
          -0.31537309288978577,
          0.07345687597990036,
          -0.21445775032043457,
          -0.02392258308827877,
          0.016274718567728996,
          -0.3749037981033325,
          0.013766864314675331,
          -0.1938990205526352,
          -0.3228408098220825,
          -0.1883399784564972,
          0.315326452255249,
          0.00031846947968006134,
          -0.0019917325116693974,
          -0.16627830266952515
        ],
        [
          0.12073694169521332,
          -0.05343951657414436,
          0.04512457922101021,
          0.0019772506784647703,
          0.0012807934544980526,
          -0.33685657382011414,
          -0.010019819252192974,
          -0.1277332305908203,
          0.35641035437583923,
          0.1300307810306549,
          -0.405574232339859,
          -0.1305682510137558,
          -0.16667672991752625,
          -0.10856937617063522,
          0.058239538222551346,
          -0.022785034030675888,
          0.00260546850040555,
          0.0023169266059994698,
          0.27787935733795166
        ],
        [
          -0.2619151771068573,
          -0.15001580119132996,
          0.043628986924886703,
          4.839777830056846e-06,
          -0.0005271844565868378,
          0.11664251238107681,
          0.2092631757259369,
          0.22675858438014984,
          -0.2528423070907593,
          -0.15422788262367249,
          0.3672254979610443,
          -0.12279265373945236,
          -0.07834619283676147,
          -0.1402880847454071,
          0.00110310735180974,
          0.300334095954895,
          0.00097752979490906,
          -0.0010641749249771237,
          -0.050957757979631424
        ],
        [
          -0.17975255846977234,
          -0.2403482347726822,
          -0.24055582284927368,
          -5.156364932190627e-05,
          7.956237823236734e-05,
          -0.0363144688308239,
          0.18503119051456451,
          0.011615296825766563,
          -0.35890933871269226,
          -0.2091296762228012,
          -0.017583567649126053,
          0.26989907026290894,
          0.20115768909454346,
          -0.26759856939315796,
          -0.21737810969352722,
          0.323602557182312,
          0.0007172151235863566,
          0.0004768545622937381,
          -0.024364186450839043
        ],
        [
          0.0026792336720973253,
          -0.07348407059907913,
          -0.21633969247341156,
          -0.0007402639603242278,
          0.00014158930571284145,
          -0.15083841979503632,
          -0.0978429839015007,
          -0.053510550409555435,
          -0.2967291474342346,
          -0.34557783603668213,
          0.3510702848434448,
          0.15641620755195618,
          -0.043372541666030884,
          -0.2578875720500946,
          -0.22285853326320648,
          0.15918795764446259,
          -0.002317723585292697,
          -0.0007587892469018698,
          -0.23384463787078857
        ],
        [
          0.16489820182323456,
          0.21504926681518555,
          0.09014024585485458,
          -0.0016388071235269308,
          0.0003423763264436275,
          -0.344942569732666,
          -0.01237941812723875,
          -0.14008936285972595,
          0.03773236274719238,
          0.06414048373699188,
          -0.3903305232524872,
          0.10959836095571518,
          -0.3249501883983612,
          -0.02802496962249279,
          -0.27852264046669006,
          0.09542777389287949,
          0.0027677344623953104,
          -0.001980724511668086,
          0.2404382824897766
        ],
        [
          -0.014817377552390099,
          -0.18411920964717865,
          -0.08649536967277527,
          0.0023068655282258987,
          -1.0654242942109704e-05,
          0.08048000931739807,
          -0.21612636744976044,
          -0.19270066916942596,
          0.20155198872089386,
          0.07607735693454742,
          -0.16097743809223175,
          0.05977969989180565,
          0.13340876996517181,
          -0.14456342160701752,
          0.09179195016622543,
          -0.019890589639544487,
          -0.0007008435786701739,
          0.0023145603481680155,
          -0.1604263186454773
        ],
        [
          0.30679699778556824,
          0.31534862518310547,
          0.1305483877658844,
          -0.001080363872461021,
          -0.0005575893446803093,
          -0.06468039751052856,
          0.04072336480021477,
          0.05571102350950241,
          0.186894953250885,
          0.211453378200531,
          0.05001755803823471,
          0.277039498090744,
          0.20736265182495117,
          -0.0038403552025556564,
          -0.23047751188278198,
          -0.215584859251976,
          0.00021823085262440145,
          0.0010764539474621415,
          -0.15892554819583893
        ],
        [
          -0.3128527104854584,
          -0.07672658562660217,
          0.01036872062832117,
          -0.0009219764033332467,
          -0.0022725153248757124,
          0.21709349751472473,
          -0.018412116914987564,
          0.32481294870376587,
          -0.2898113429546356,
          -0.19181418418884277,
          0.3616957664489746,
          -0.026881275698542595,
          0.30735623836517334,
          0.161531463265419,
          -0.11146891862154007,
          0.2969479560852051,
          -0.0010728411143645644,
          0.0022009178064763546,
          -0.2905330955982208
        ],
        [
          0.04037092998623848,
          -0.09776895493268967,
          -0.11808495223522186,
          -0.002289371332153678,
          0.0002760787319857627,
          0.0883568823337555,
          -0.055757321417331696,
          -0.1314045637845993,
          0.013108192011713982,
          0.31667959690093994,
          -0.20938259363174438,
          0.05390893667936325,
          0.4082646667957306,
          -0.21162483096122742,
          -0.23594029247760773,
          0.22996439039707184,
          0.0003453476820141077,
          -0.0020597251132130623,
          -0.15487153828144073
        ],
        [
          -0.05333808809518814,
          0.17438267171382904,
          0.2046462446451187,
          8.65071197040379e-05,
          0.0015323879197239876,
          -0.012822398915886879,
          -0.14200487732887268,
          -0.08316732197999954,
          0.18336552381515503,
          0.04751696065068245,
          -0.2942161560058594,
          -0.1291816234588623,
          -0.15100528299808502,
          0.27316516637802124,
          -0.07398974150419235,
          -0.11757590621709824,
          0.002103916835039854,
          -0.0004683665174525231,
          -0.031580086797475815
        ],
        [
          -0.21835005283355713,
          0.02720661461353302,
          -0.2704105079174042,
          -0.0007641195552423596,
          -0.0015149048995226622,
          0.1040971502661705,
          0.09924591332674026,
          0.23479703068733215,
          -0.2516483962535858,
          -0.08743250370025635,
          0.21865986287593842,
          0.025301262736320496,
          0.20345675945281982,
          -0.004537456203252077,
          -0.13624390959739685,
          0.16351306438446045,
          0.000695500522851944,
          0.001760825514793396,
          0.17223648726940155
        ],
        [
          -0.25637325644493103,
          0.1565345823764801,
          -0.24397151172161102,
          -0.0018388715106993914,
          -0.0015721318777650595,
          0.05608512461185455,
          0.17810694873332977,
          0.25796452164649963,
          -0.22318647801876068,
          0.07161907851696014,
          0.19613038003444672,
          0.0005233124829828739,
          -0.1345110982656479,
          0.00023301031615119427,
          -0.05675051733851433,
          0.1380409151315689,
          -0.0015127089573070407,
          -0.0015065299812704325,
          -0.165104940533638
        ],
        [
          0.02387995459139347,
          0.2955349385738373,
          -0.0937419906258583,
          -0.0012043277965858579,
          0.0014088915195316076,
          -0.09955167025327682,
          -0.05317561328411102,
          -0.01744881458580494,
          -0.16158927977085114,
          0.18812231719493866,
          0.33498719334602356,
          -0.0071795484982430935,
          0.0982564315199852,
          0.2786722779273987,
          0.00492768082767725,
          -0.25282859802246094,
          -0.0014778184704482555,
          -0.0011737197637557983,
          -0.06430193781852722
        ],
        [
          0.2709590494632721,
          0.23510760068893433,
          -0.3165459930896759,
          0.0006366815068759024,
          0.0009412617073394358,
          -0.09259827435016632,
          0.2155158370733261,
          -0.12067201733589172,
          -0.023535918444395065,
          -0.30132460594177246,
          0.21800951659679413,
          0.3215499818325043,
          0.2877117991447449,
          0.22905735671520233,
          0.1189502403140068,
          -0.15367470681667328,
          3.142039349768311e-05,
          -0.003137140301987529,
          0.0438975915312767
        ],
        [
          0.2494456171989441,
          0.06187658756971359,
          0.26829808950424194,
          0.0022455956786870956,
          -0.002494044601917267,
          -0.13013458251953125,
          -0.2657470107078552,
          0.08408763259649277,
          0.27329447865486145,
          0.32680872082710266,
          -0.030543500557541847,
          -0.16601772606372833,
          0.020349718630313873,
          -0.14704018831253052,
          -0.049524322152137756,
          0.04001493752002716,
          -0.002238868735730648,
          -0.001722628716379404,
          -0.13477171957492828
        ],
        [
          -0.09938226640224457,
          -0.16509872674942017,
          -0.12728454172611237,
          0.00040439824806526303,
          -0.001780846854671836,
          0.1705329716205597,
          0.24011212587356567,
          0.13415835797786713,
          0.14401349425315857,
          -0.02183024026453495,
          0.14223502576351166,
          0.018366949632763863,
          -0.11998199671506882,
          0.282745361328125,
          -0.2589606046676636,
          -0.3471946120262146,
          -0.0006022227462381124,
          -0.0014593328814953566,
          0.3386651277542114
        ],
        [
          -0.30707868933677673,
          -0.09126799553632736,
          0.04939589276909828,
          0.0014804818201810122,
          -0.0009210060234181583,
          -0.05932173132896423,
          0.31091925501823425,
          0.06099558249115944,
          -0.3477902412414551,
          -0.11715608090162277,
          0.4077199697494507,
          0.15801140666007996,
          0.24775516986846924,
          0.29418841004371643,
          -0.3153226673603058,
          0.19174796342849731,
          -0.003412678837776184,
          -0.0017763475188985467,
          0.05062013491988182
        ],
        [
          0.09678240865468979,
          0.1480710357427597,
          0.1333744078874588,
          7.043172081466764e-05,
          0.0006746139843016863,
          -0.2731482982635498,
          0.23022378981113434,
          -0.08603695780038834,
          -0.11431076377630234,
          0.23315724730491638,
          -0.25466278195381165,
          0.14747990667819977,
          0.17291153967380524,
          -0.28670042753219604,
          -0.053610771894454956,
          0.23603758215904236,
          0.0001169397437479347,
          2.6704976335167885e-05,
          0.1082136258482933
        ],
        [
          -0.0877600610256195,
          -0.14130666851997375,
          -0.22575215995311737,
          -0.0006671673036180437,
          0.00019299634732306004,
          -0.10379745066165924,
          -0.047288134694099426,
          0.1572239100933075,
          -0.28015029430389404,
          -0.36409991979599,
          0.17606179416179657,
          -0.14607501029968262,
          0.15246450901031494,
          -0.1876167207956314,
          -0.2875406742095947,
          -0.31137457489967346,
          0.0031647111754864454,
          -0.0018912556115537882,
          -0.0037640181835740805
        ],
        [
          -0.23646500706672668,
          -0.046932343393564224,
          -0.3182389736175537,
          -0.00013606454012915492,
          0.000765719567425549,
          -0.12784138321876526,
          0.07931715250015259,
          0.24528571963310242,
          -0.27881908416748047,
          0.017069529742002487,
          0.08708187937736511,
          -0.14566437900066376,
          0.04834384098649025,
          0.20349200069904327,
          0.1215953603386879,
          -0.08168177306652069,
          0.001531454036012292,
          -0.0009195717284455895,
          -0.019092369824647903
        ],
        [
          -0.23411992192268372,
          -0.11769286543130875,
          -0.1661272943019867,
          -0.0008773101726546884,
          -8.899661770556122e-05,
          0.1417604386806488,
          -0.04395677149295807,
          -0.06569378077983856,
          0.17614801228046417,
          -0.40927112102508545,
          0.2337198406457901,
          0.022603468969464302,
          0.19634808599948883,
          -0.2082110196352005,
          0.11195720732212067,
          -0.2436077892780304,
          -0.0014929921599105,
          -0.00048261633492074907,
          -0.15123970806598663
        ],
        [
          0.0822407603263855,
          0.057491760700941086,
          -0.06727050244808197,
          -2.8869610105175525e-05,
          0.0023090785834938288,
          0.22547277808189392,
          0.3027292788028717,
          0.07751083374023438,
          -0.14712324738502502,
          -0.31177932024002075,
          0.4767718017101288,
          -0.10535185039043427,
          0.23902660608291626,
          -0.06612439453601837,
          -0.1491130292415619,
          0.3016369342803955,
          -0.0016456326702609658,
          -0.0022301706485450268,
          0.06279965490102768
        ],
        [
          0.12915366888046265,
          0.08377085626125336,
          -0.29449012875556946,
          -0.001360523165203631,
          -0.0001604037533979863,
          0.013611096888780594,
          0.2674354910850525,
          0.10508809983730316,
          -0.14734607934951782,
          -0.0769103392958641,
          0.38475456833839417,
          0.26204952597618103,
          0.12289948761463165,
          0.07630834728479385,
          -0.08833259344100952,
          0.2553529143333435,
          0.0029176196549087763,
          -0.0031527462415397167,
          -0.08954133838415146
        ],
        [
          -0.2006612867116928,
          -0.061593666672706604,
          -0.12804275751113892,
          -0.0002392421883996576,
          -0.0011260060127824545,
          0.2271982729434967,
          0.08197461068630219,
          -0.006707052234560251,
          -0.35695934295654297,
          -0.14071840047836304,
          -0.0156913623213768,
          -0.05601739510893822,
          -0.060477279126644135,
          -0.16254419088363647,
          -0.26913490891456604,
          0.1005907878279686,
          -0.0006814496009610593,
          -7.154444756451994e-05,
          -0.2970079481601715
        ],
        [
          -0.20288048684597015,
          0.03042464889585972,
          0.10952025651931763,
          0.0023035630583763123,
          0.0008566977921873331,
          -0.1428135186433792,
          0.2102510631084442,
          -0.010189579799771309,
          -0.20878659188747406,
          -0.37584954500198364,
          0.18269719183444977,
          0.1796710044145584,
          0.0058107818476855755,
          -0.05173979327082634,
          -0.1586678922176361,
          0.03098485618829727,
          9.927422797773033e-05,
          -0.00222035963088274,
          -0.09779255092144012
        ],
        [
          0.22314190864562988,
          0.27878791093826294,
          0.2864800691604614,
          -0.00010231848136754707,
          0.0020851807203143835,
          -0.03328652307391167,
          -0.21988503634929657,
          -0.04926484078168869,
          0.20011655986309052,
          0.22252100706100464,
          -0.08037231862545013,
          -0.2667602300643921,
          -0.07796660810709,
          0.09708653390407562,
          0.26504695415496826,
          0.22031447291374207,
          -0.00043579432531259954,
          -0.0001606406585779041,
          0.29325202107429504
        ],
        [
          0.24558432400226593,
          0.11528930068016052,
          0.06576310843229294,
          -0.0009808739414438605,
          -0.002152620814740658,
          -0.19904153048992157,
          0.12600740790367126,
          -0.22972121834754944,
          0.0199913140386343,
          0.37003326416015625,
          -0.2913128733634949,
          -0.12837304174900055,
          0.14217205345630646,
          -0.40254494547843933,
          -0.3131180703639984,
          0.3594719171524048,
          -0.0002379610377829522,
          -8.99883743841201e-05,
          -0.3364904522895813
        ],
        [
          -0.047932326793670654,
          0.23294219374656677,
          0.3540750741958618,
          -0.002013314748182893,
          -0.0002758770133368671,
          -0.3444350063800812,
          -0.30720773339271545,
          -0.2757212817668915,
          -0.08423008769750595,
          0.2304927557706833,
          -0.0349704883992672,
          0.1523442566394806,
          0.12411349266767502,
          -0.022001339122653008,
          0.22325152158737183,
          -0.054568756371736526,
          -0.0003868028288707137,
          0.003282940946519375,
          0.16625966131687164
        ],
        [
          0.21281880140304565,
          0.30054971575737,
          0.2859984338283539,
          0.002266397001221776,
          -0.0012439419515430927,
          -0.1286391019821167,
          -0.08599375933408737,
          -0.07836399972438812,
          0.3632785677909851,
          -0.04993882775306702,
          -0.16651946306228638,
          0.33069172501564026,
          0.13947974145412445,
          0.13148902356624603,
          -0.17056672275066376,
          0.09591449052095413,
          0.0020728311501443386,
          0.00016374779806938022,
          -0.08180826157331467
        ],
        [
          0.03227956220507622,
          -0.03336326777935028,
          -0.3144364356994629,
          0.0016307495534420013,
          -0.0030879841651767492,
          0.26245564222335815,
          0.29042986035346985,
          0.07369747757911682,
          0.05826940760016441,
          -0.15764524042606354,
          -0.27227702736854553,
          -0.22830137610435486,
          -0.1674780249595642,
          -0.11230887472629547,
          -0.045383647084236145,
          0.31972041726112366,
          0.001505499822087586,
          -0.0004356294812168926,
          0.03535407409071922
        ],
        [
          -0.08949252963066101,
          0.20622651278972626,
          -0.047509096562862396,
          5.637994036078453e-07,
          0.0027664967346936464,
          0.12190191447734833,
          -0.07926350086927414,
          0.05147167667746544,
          0.17643582820892334,
          -0.2997591495513916,
          0.37767544388771057,
          0.31863778829574585,
          0.1741437166929245,
          -0.10784578323364258,
          -0.16295288503170013,
          -0.06298986822366714,
          -0.0019812393002212048,
          4.0981394704431295e-06,
          -0.3251721262931824
        ],
        [
          -0.20873120427131653,
          -0.1817576140165329,
          0.017524782568216324,
          -3.959241439588368e-05,
          0.00010414342978037894,
          -0.1928311437368393,
          0.17550164461135864,
          -0.04187222197651863,
          -0.10279428213834763,
          0.17830274999141693,
          0.18646951019763947,
          0.03146195039153099,
          0.11471214890480042,
          -0.12314864248037338,
          -0.0024131708778440952,
          0.18029089272022247,
          -0.00031929180840961635,
          0.001604071818292141,
          0.039261408150196075
        ],
        [
          -0.0740438848733902,
          0.05673746392130852,
          0.03219107165932655,
          0.0023164870217442513,
          -0.00045102869626134634,
          -0.1939886063337326,
          0.0328575074672699,
          -0.24094697833061218,
          0.031065095216035843,
          0.18813715875148773,
          -0.2253083884716034,
          0.2385030835866928,
          0.2729257643222809,
          0.0035103282425552607,
          -0.1328364908695221,
          0.2676103115081787,
          0.0005484165740199387,
          0.00038932188181206584,
          -0.23080146312713623
        ],
        [
          0.32061871886253357,
          0.16168475151062012,
          0.16377177834510803,
          0.00047442701179534197,
          -0.0002860911190509796,
          -0.017731470987200737,
          -0.1475779414176941,
          -0.24093154072761536,
          -0.015692947432398796,
          -0.10613420605659485,
          0.05639669671654701,
          0.12340778857469559,
          -0.3255453109741211,
          -0.20103777945041656,
          -0.09608714282512665,
          0.022688457742333412,
          5.027011502534151e-05,
          5.9756741393357515e-05,
          0.10254130512475967
        ],
        [
          -0.0831679031252861,
          -0.18843957781791687,
          -0.21577133238315582,
          0.00026323352358303964,
          0.002021429594606161,
          -0.12310559302568436,
          0.2885110080242157,
          0.05430910736322403,
          -0.13976243138313293,
          -0.4530552327632904,
          0.3269776999950409,
          0.014272338710725307,
          -0.08808451145887375,
          -0.20214097201824188,
          -0.2623286247253418,
          0.06368251144886017,
          -0.0006249494035728276,
          4.921414074487984e-05,
          -0.2540362477302551
        ],
        [
          0.1844990998506546,
          0.11800098419189453,
          0.0665016919374466,
          -0.00016109828720800579,
          -0.0004157362272962928,
          -0.21119007468223572,
          -0.31209686398506165,
          -0.026089521124958992,
          -0.0879892036318779,
          0.2522541880607605,
          -0.44927501678466797,
          0.324627161026001,
          0.15596342086791992,
          0.13598117232322693,
          0.08198337256908417,
          0.25912046432495117,
          -0.000883093336597085,
          0.0021726558916270733,
          -0.10045167058706284
        ],
        [
          0.3046805262565613,
          0.06145473197102547,
          0.10761962085962296,
          -0.0019349062349647284,
          0.0018897397676482797,
          -0.07533930242061615,
          -0.352277934551239,
          -0.3059156537055969,
          0.2107730209827423,
          0.20943453907966614,
          -0.26250454783439636,
          -0.22560010850429535,
          -0.3005308508872986,
          -0.0015426217578351498,
          -0.20809566974639893,
          0.23402860760688782,
          -0.003148264018818736,
          -6.721903628204018e-05,
          0.1753280907869339
        ],
        [
          -0.06508325040340424,
          -0.1855745017528534,
          -0.0491662323474884,
          0.003144472138956189,
          9.578446042723954e-05,
          -0.028708064928650856,
          -0.028293177485466003,
          -0.051668811589479446,
          -0.2707991302013397,
          -0.35883668065071106,
          0.27962934970855713,
          0.21086569130420685,
          -0.189970463514328,
          -0.12459252774715424,
          0.14287228882312775,
          0.30722180008888245,
          -0.00039741379441693425,
          -0.0020240312442183495,
          -0.22031886875629425
        ],
        [
          -0.12527060508728027,
          -0.11240225285291672,
          -0.22091272473335266,
          0.00044022122165188193,
          0.0007473049336113036,
          -0.19064876437187195,
          0.08789683878421783,
          0.06443867832422256,
          0.02660175785422325,
          -0.1218528002500534,
          0.25334039330482483,
          0.16957741975784302,
          0.024463029578328133,
          -0.12099586427211761,
          -0.09137052297592163,
          -0.37908244132995605,
          -0.0023125079460442066,
          -0.0007872558198869228,
          0.030328789725899696
        ],
        [
          -0.17523036897182465,
          -0.2283501923084259,
          0.030014077201485634,
          7.155968341976404e-05,
          -0.003026805352419615,
          -0.03544938191771507,
          0.23756000399589539,
          0.18553395569324493,
          -0.11763011664152145,
          -0.21876347064971924,
          0.4061603248119354,
          0.07346715778112411,
          0.10673066228628159,
          -0.2100982517004013,
          -0.21389935910701752,
          0.20782530307769775,
          0.0005568721680901945,
          0.00012637200416065753,
          0.0378379225730896
        ],
        [
          0.09189970046281815,
          0.37501469254493713,
          -0.263674795627594,
          -0.0011104396544396877,
          0.0004584751441143453,
          -0.3441641628742218,
          0.09393312782049179,
          0.06197007745504379,
          -0.24045012891292572,
          -0.10063046216964722,
          0.357237845659256,
          -0.16248086094856262,
          -0.002163000637665391,
          0.2663489282131195,
          -0.2779836356639862,
          -0.393067330121994,
          0.0009594463044777513,
          0.0018339792732149363,
          -0.11863401532173157
        ],
        [
          -0.00046428036876022816,
          0.16182999312877655,
          0.1287868171930313,
          -0.0013804843183606863,
          -0.001528624794445932,
          -0.23804764449596405,
          -0.19261598587036133,
          -0.33530282974243164,
          0.14196695387363434,
          0.3054638206958771,
          -0.027870262041687965,
          0.21128971874713898,
          0.23546196520328522,
          0.094136081635952,
          -0.2673914432525635,
          0.16826975345611572,
          -5.452704499475658e-05,
          -0.0008212766260839999,
          0.248125821352005
        ],
        [
          -0.23164375126361847,
          0.004715730901807547,
          -0.24842214584350586,
          0.00031442244653590024,
          -0.0006382628926075995,
          0.31049907207489014,
          0.13783641159534454,
          0.3505062460899353,
          -0.07714948803186417,
          -0.2084982544183731,
          0.008998469449579716,
          -0.026717793196439743,
          -0.027949616312980652,
          -0.13255958259105682,
          -0.08299970626831055,
          -0.25133174657821655,
          -0.0003154129080940038,
          0.0001637616369407624,
          0.07936308532953262
        ],
        [
          -0.0031975863967090845,
          0.21372900903224945,
          -0.06008216366171837,
          -0.0014590503415092826,
          0.0012968028895556927,
          -0.32030564546585083,
          -0.040439944714307785,
          -0.16859136521816254,
          -0.06280035525560379,
          0.1358882188796997,
          -0.1861744076013565,
          0.02957003377377987,
          0.09081993997097015,
          0.16676603257656097,
          0.018229277804493904,
          0.18911278247833252,
          0.0009590823901817203,
          -0.0022113306913524866,
          0.10665271431207657
        ],
        [
          0.15835066139698029,
          -0.04377709701657295,
          -0.11387443542480469,
          0.0006394843221642077,
          0.0009345992584712803,
          -0.1658877432346344,
          -0.09980975091457367,
          0.013745234347879887,
          0.19439949095249176,
          0.14829494059085846,
          0.2222284972667694,
          -0.1481056958436966,
          -0.21464955806732178,
          -0.1207481324672699,
          -0.10155399143695831,
          -0.12763547897338867,
          0.00010112553718499839,
          -0.00045366387348622084,
          -0.040616389364004135
        ],
        [
          -0.19702284038066864,
          -0.03747281804680824,
          -0.27456891536712646,
          0.00230428040958941,
          0.0010580657981336117,
          -0.014485953375697136,
          0.008891376666724682,
          -0.18670086562633514,
          -0.1900700032711029,
          -0.4357739984989166,
          0.10301130264997482,
          0.2305486500263214,
          0.1415340006351471,
          0.02184244804084301,
          -0.13062188029289246,
          0.0981830358505249,
          0.0013630925677716732,
          0.0003143012581858784,
          -0.07343365252017975
        ]
      ],
      "bias": [
        0.1453695297241211,
        0.31105661392211914,
        0.10738766938447952,
        0.1878531128168106,
        -0.030621448531746864,
        0.20388244092464447,
        0.07821312546730042,
        -0.1312723606824875,
        0.37236255407333374,
        0.2115183174610138,
        -0.026629894971847534,
        0.03510041907429695,
        -0.049124471843242645,
        0.2510903477668762,
        0.1526189148426056,
        0.35820505023002625,
        -0.1148780807852745,
        0.2844122052192688,
        0.1382116973400116,
        -0.08889234066009521,
        0.024412797763943672,
        0.15048107504844666,
        0.03865671902894974,
        0.10466628521680832,
        0.20098616182804108,
        0.0004980867379345,
        0.06957805901765823,
        -0.010229560546576977,
        0.053335461765527725,
        -0.11550778895616531,
        -0.16562502086162567,
        0.24471120536327362,
        0.059375420212745667,
        0.256980836391449,
        0.1684352606534958,
        0.2763892710208893,
        0.2731449007987976,
        -0.016439342871308327,
        0.11050410568714142,
        0.32989752292633057,
        -0.08066179603338242,
        0.12764301896095276,
        -0.1469040811061859,
        -0.052510473877191544,
        0.326984167098999,
        -0.05757105350494385,
        0.29474011063575745,
        0.21510587632656097,
        0.3235321044921875,
        -0.20529848337173462,
        0.06267157942056656,
        0.13622762262821198,
        -0.027099892497062683,
        0.13655899465084076,
        0.008683031424880028,
        0.02549131214618683,
        0.0636608749628067,
        0.07465077191591263,
        -0.06850030273199081,
        0.019130829721689224,
        0.23724950850009918,
        -0.1109907403588295,
        -0.19264058768749237,
        0.20740705728530884
      ],
      "activation": "relu"
    },
    {
      "weight": [
        [
          0.08914201706647873,
          -0.1619093418121338,
          -0.11543479561805725,
          -0.25933679938316345,
          0.07379242032766342,
          0.17497187852859497,
          0.07566177845001221,
          0.07194008678197861,
          0.05428370088338852,
          -0.223081573843956,
          0.09200802445411682,
          0.28209391236305237,
          -0.16550512611865997,
          0.1851503551006317,
          0.19857586920261383,
          0.0910332053899765,
          0.19812649488449097,
          0.003309880383312702,
          -0.1921248435974121,
          0.03292346000671387,
          0.03956145420670509,
          0.07214175164699554,
          -0.10093623399734497,
          0.12084300071001053,
          0.10954926908016205,
          0.2238098382949829,
          -0.11712552607059479,
          0.08232352882623672,
          0.2130642533302307,
          0.05463894084095955,
          0.17799480259418488,
          0.049075450748205185,
          -0.07305506616830826,
          0.23522134125232697,
          0.2228584587574005,
          -0.032657548785209656,
          0.16989168524742126,
          0.09327515959739685,
          0.19326724112033844,
          0.1825568526983261,
          0.071356400847435,
          0.10633251816034317,
          0.10325455665588379,
          -0.15821853280067444,
          0.12084353715181351,
          0.08166635036468506,
          0.2206614911556244,
          0.14152927696704865,
          0.24147123098373413,
          -0.0020309463143348694,
          0.008554144762456417,
          0.11733858287334442,
          0.2385597974061966,
          -0.06652658432722092,
          -0.20621739327907562,
          0.0809130147099495,
          0.040382061153650284,
          0.0832584798336029,
          0.29528847336769104,
          0.14260976016521454,
          0.2235146015882492,
          0.24676388502120972,
          0.013555722311139107,
          0.08591102808713913
        ],
        [
          -0.09274198114871979,
          0.1881139576435089,
          0.23723837733268738,
          0.14343535900115967,
          0.049451228231191635,
          -0.002620000159367919,
          -0.08672059327363968,
          0.1262442171573639,
          0.1321144998073578,
          0.03355259820818901,
          0.24376167356967926,
          -0.00030911609064787626,
          0.03728100284934044,
          0.16297492384910583,
          0.15725360810756683,
          0.13894638419151306,
          0.06392615288496017,
          0.24795204401016235,
          0.18315072357654572,
          -0.09152413159608841,
          0.2170546054840088,
          0.03204890713095665,
          0.2582860291004181,
          0.10657802224159241,
          0.19413432478904724,
          0.09817904978990555,
          0.019088249653577805,
          0.15268658101558685,
          0.00227369018830359,
          0.0911887064576149,
          -0.029422329738736153,
          0.07863137871026993,
          0.13491927087306976,
          0.19145776331424713,
          -0.09315141290426254,
          0.08206573128700256,
          0.10300596058368683,
          0.15696722269058228,
          0.12000937014818192,
          -0.029272442683577538,
          -0.0908886045217514,
          0.1510051190853119,
          0.009188789874315262,
          0.21279075741767883,
          0.2495724856853485,
          0.21404488384723663,
          0.13079966604709625,
          0.17153368890285492,
          0.05813930183649063,
          0.14919328689575195,
          0.1558917760848999,
          0.19168077409267426,
          -0.11662659794092178,
          0.1935441642999649,
          0.20207001268863678,
          -0.09748770296573639,
          0.043244868516922,
          0.015663353726267815,
          -0.18929307162761688,
          0.1069369912147522,
          0.12666401267051697,
          0.19255797564983368,
          0.07478319853544235,
          0.134734109044075
        ],
        [
          -0.26095762848854065,
          0.22111020982265472,
          0.14138168096542358,
          0.20302166044712067,
          0.08944293111562729,
          -0.20782476663589478,
          -0.13500776886940002,
          -0.0188919585198164,
          0.16153764724731445,
          0.24022714793682098,
          0.255862295627594,
          0.052513740956783295,
          0.16566289961338043,
          0.0493457168340683,
          0.1696595847606659,
          0.136824369430542,
          -0.11445113271474838,
          0.16863670945167542,
          0.20507659018039703,
          0.0280825886875391,
          0.18712125718593597,
          -0.04334459453821182,
          0.2184654325246811,
          0.056908562779426575,
          0.06724300980567932,
          0.007275968790054321,
          0.1333998292684555,
          0.23800508677959442,
          -0.15508730709552765,
          -0.16176959872245789,
          -0.1579054445028305,
          -0.16127023100852966,
          0.04600585252046585,
          0.13615867495536804,
          -0.04551715403795242,
          0.12603966891765594,
          -0.05880742892622948,
          0.10236027091741562,
          -0.21018658578395844,
          -0.08395186066627502,
          -0.18117687106132507,
          0.19284950196743011,
          -0.06098382547497749,
          0.18880675733089447,
          0.19718101620674133,
          0.2266564816236496,
          0.24100548028945923,
          0.22699567675590515,
          -0.07621245086193085,
          -0.09862038493156433,
          0.09240354597568512,
          0.15704882144927979,
          -0.10397695749998093,
          0.0723501592874527,
          0.1721874177455902,
          -0.053347159177064896,
          0.09665437042713165,
          -0.08784142136573792,
          -0.23776181042194366,
          0.23017634451389313,
          0.048375438898801804,
          0.11136224865913391,
          0.02864442951977253,
          0.04669484123587608
        ],
        [
          -0.1628236621618271,
          0.16466473042964935,
          0.1454356461763382,
          0.15183891355991364,
          0.2237701714038849,
          -0.07421956956386566,
          -0.13515563309192657,
          -0.05793561786413193,
          0.24190016090869904,
          0.19881193339824677,
          0.12011641263961792,
          -0.055902931839227676,
          0.1368780881166458,
          0.08634845167398453,
          0.07703637331724167,
          0.21622231602668762,
          -0.06182076781988144,
          0.14788328111171722,
          0.06607947498559952,
          -0.0928090438246727,
          0.19487829506397247,
          0.0013920865021646023,
          0.21186122298240662,
          0.024904150515794754,
          0.21045242249965668,
          -0.13027389347553253,
          0.09918763488531113,
          0.18606185913085938,
          0.04468005150556564,
          0.01289429236203432,
          -0.11879348009824753,
          -0.03862692415714264,
          0.088326096534729,
          -0.04627184569835663,
          -0.1475151926279068,
          0.26681211590766907,
          -0.0016974098980426788,
          0.05273813381791115,
          -0.10757598280906677,
          -0.06046523153781891,
          -0.13920769095420837,
          0.26363828778266907,
          0.007645857986062765,
          0.13812288641929626,
          0.2517419457435608,
          0.07849162071943283,
          0.009063702076673508,
          0.2978655993938446,
          -0.002118740463629365,
          -0.11085689067840576,
          0.266191303730011,
          0.21653543412685394,
          -0.22487060725688934,
          0.06746142357587814,
          0.01778821088373661,
          -0.006707765161991119,
          -0.0012988629750907421,
          -0.05968023091554642,
          -0.09880795329809189,
          0.04653533548116684,
          0.2439592033624649,
          0.12088155746459961,
          0.07625031471252441,
          -0.05210544914007187
        ],
        [
          0.07380744069814682,
          0.1228945404291153,
          0.19726461172103882,
          0.0594189316034317,
          0.16673490405082703,
          0.08949156105518341,
          0.07438746094703674,
          0.18506133556365967,
          0.18587911128997803,
          0.008801896125078201,
          0.1983482837677002,
          0.2590946853160858,
          0.07886383682489395,
          0.024311205372214317,
          0.20634914934635162,
          0.2291492223739624,
          0.024623416364192963,
          0.20494936406612396,
          0.24106884002685547,
          0.17793285846710205,
          0.2528514862060547,
          0.061002276837825775,
          0.12474974989891052,
          0.21431314945220947,
          0.07262933254241943,
          0.09568225592374802,
          0.025338975712656975,
          0.17980068922042847,
          0.16233235597610474,
          0.07529091089963913,
          0.028665900230407715,
          0.1698562502861023,
          0.10444694012403488,
          0.12266340851783752,
          0.17285843193531036,
          0.2565571665763855,
          0.2148253172636032,
          0.1906392127275467,
          0.056253883987665176,
          0.20847558975219727,
          0.25343236327171326,
          0.20736542344093323,
          0.025125058367848396,
          0.24389256536960602,
          0.11430995166301727,
          0.07437270879745483,
          0.03667963296175003,
          0.18376940488815308,
          0.2443237453699112,
          0.15143220126628876,
          0.07604721188545227,
          0.11175156384706497,
          0.015435655601322651,
          0.1793191283941269,
          0.017785262316465378,
          0.17660756409168243,
          0.23352056741714478,
          0.04404762014746666,
          0.053567226976156235,
          0.12215811014175415,
          0.06064260005950928,
          0.016217343509197235,
          0.2324230819940567,
          0.25142231583595276
        ],
        [
          0.013024082407355309,
          -0.025512931868433952,
          -0.07307783514261246,
          -0.16186198592185974,
          -0.08458898216485977,
          -0.16214406490325928,
          -0.11284002661705017,
          -0.11423841118812561,
          -0.14867980778217316,
          -0.14800864458084106,
          0.009412539191544056,
          -0.11441618949174881,
          -0.0964241623878479,
          -0.016446076333522797,
          -0.05535602569580078,
          -0.10863789170980453,
          -0.062859445810318,
          -0.010801389813423157,
          0.042353082448244095,
          -0.12707096338272095,
          -0.005098836962133646,
          -0.11969688534736633,
          0.00884983129799366,
          0.040776368230581284,
          -0.0372496135532856,
          -0.06777312606573105,
          -0.036939602345228195,
          -0.0652858093380928,
          -0.025428714230656624,
          0.01896005868911743,
          -0.09929081797599792,
          0.0475982129573822,
          0.04461697116494179,
          -0.06486345827579498,
          -0.0362858809530735,
          -0.16401387751102448,
          -0.0753057673573494,
          -0.1610218584537506,
          0.011432468891143799,
          -0.12481097131967545,
          0.012600468471646309,
          -0.15108956396579742,
          0.0008194780675694346,
          -0.04530056193470955,
          -0.14135360717773438,
          -0.16299039125442505,
          -0.08142223209142685,
          0.00804741308093071,
          -0.06681236624717712,
          0.0038838551845401525,
          -0.0880344808101654,
          -0.1676751971244812,
          -0.094352126121521,
          -0.09971897304058075,
          0.019175667315721512,
          0.02211681939661503,
          -0.0768866166472435,
          0.002674648305401206,
          -0.04450885206460953,
          -0.10837369412183762,
          -0.13034066557884216,
          -0.0007262958097271621,
          -0.05955275893211365,
          -0.08917184919118881
        ],
        [
          0.05294268578290939,
          -0.20286676287651062,
          -0.1804632544517517,
          -0.05099259316921234,
          -0.20007798075675964,
          0.23416508734226227,
          0.16623049974441528,
          0.057938102632761,
          0.05530007556080818,
          -0.032661598175764084,
          0.055694445967674255,
          0.23727533221244812,
          -0.16464319825172424,
          0.03614344075322151,
          -0.05125492811203003,
          -0.03128964081406593,
          0.07530081272125244,
          0.06935621052980423,
          -0.10065509378910065,
          0.15809647738933563,
          0.13343499600887299,
          0.20396336913108826,
          -0.06908109784126282,
          -0.04191087186336517,
          -0.1378125697374344,
          0.13397395610809326,
          -0.002867595525458455,
          -0.02675098367035389,
          0.1120574027299881,
          0.0382780097424984,
          0.014961387030780315,
          0.27555912733078003,
          -0.13610497117042542,
          0.15721875429153442,
          0.0524672195315361,
          0.0356450192630291,
          0.12404627352952957,
          0.04991896077990532,
          0.07924928516149521,
          0.14093932509422302,
          0.04770491644740105,
          -0.08974052965641022,
          0.23697777092456818,
          -0.18550598621368408,
          -0.06743640452623367,
          0.0036047049798071384,
          0.03341658040881157,
          0.1465822011232376,
          0.05266713351011276,
          0.014499972574412823,
          -0.03341703861951828,
          0.19231052696704865,
          0.27273258566856384,
          -0.056648243218660355,
          -0.13514232635498047,
          0.12024524062871933,
          0.00809607282280922,
          0.10007276386022568,
          0.07160241901874542,
          0.05873708054423332,
          0.010545173659920692,
          0.08068162202835083,
          -0.06648096442222595,
          0.024694036692380905
        ],
        [
          0.011233553290367126,
          0.03636503592133522,
          0.239261656999588,
          0.08462372422218323,
          0.00888989306986332,
          0.12359766662120819,
          0.02274784818291664,
          0.08512473106384277,
          0.14091822504997253,
          0.07981424033641815,
          0.09706123173236847,
          0.22766555845737457,
          0.13034455478191376,
          0.009563641622662544,
          0.10809968411922455,
          0.13670828938484192,
          0.06656013429164886,
          0.1739378720521927,
          0.061399295926094055,
          0.07302442938089371,
          0.13607637584209442,
          0.09224240481853485,
          0.25024113059043884,
          0.1906794160604477,
          0.11573898047208786,
          0.16229134798049927,
          0.15124425292015076,
          0.025566084310412407,
          0.06696153432130814,
          0.012808042578399181,
          0.015459026210010052,
          0.09828314185142517,
          0.23712489008903503,
          0.2295936644077301,
          0.2509974539279938,
          0.23276670277118683,
          0.1430479735136032,
          0.14126479625701904,
          0.10299306362867355,
          0.149077370762825,
          0.017718086019158363,
          0.10768646001815796,
          0.18537262082099915,
          0.03601996973156929,
          0.11114171892404556,
          0.007909840904176235,
          0.10173282772302628,
          0.1372745782136917,
          0.033413276076316833,
          0.10128392279148102,
          0.2470303177833557,
          0.034950416535139084,
          0.10661103576421738,
          0.10851705074310303,
          0.23413492739200592,
          0.15313272178173065,
          0.011308209039270878,
          0.062059435993433,
          0.1679963767528534,
          0.16894128918647766,
          0.09523056447505951,
          0.20161408185958862,
          0.01026263739913702,
          0.1932401806116104
        ],
        [
          -0.25485461950302124,
          0.22621116042137146,
          0.16326434910297394,
          0.15787352621555328,
          0.17347517609596252,
          -0.1438889354467392,
          -0.009234420023858547,
          -0.046070583164691925,
          0.2377692461013794,
          0.051478803157806396,
          0.09748844057321548,
          -0.1899915486574173,
          0.027351342141628265,
          -0.07057222723960876,
          0.23059353232383728,
          -0.06586164236068726,
          -0.026569506153464317,
          0.1620040386915207,
          0.13992634415626526,
          -0.12640394270420074,
          -0.062170494347810745,
          -0.10537631809711456,
          0.02951401099562645,
          0.16500075161457062,
          0.1240142285823822,
          -0.039080243557691574,
          0.20717456936836243,
          0.16076242923736572,
          -0.1222979724407196,
          -0.1208609789609909,
          -0.17143690586090088,
          -0.18213732540607452,
          0.13875316083431244,
          0.012626216746866703,
          -0.03603406623005867,
          0.06410921365022659,
          -0.1968497633934021,
          -0.15153639018535614,
          -0.13547174632549286,
          -0.0791366919875145,
          -0.16063961386680603,
          0.2133139818906784,
          -0.07257267832756042,
          0.1968233585357666,
          0.15396958589553833,
          -0.006345270201563835,
          0.0801188126206398,
          0.08547143638134003,
          0.02036787010729313,
          -0.02498055249452591,
          0.13842591643333435,
          0.14760011434555054,
          -0.03999102860689163,
          0.14019981026649475,
          0.1929427832365036,
          -0.0519954152405262,
          -0.1598007082939148,
          -0.18305370211601257,
          -0.09824148565530777,
          0.2224195897579193,
          0.037219952791929245,
          0.09571842104196548,
          -0.012618633918464184,
          -0.052434712648391724
        ],
        [
          0.21085329353809357,
          0.13296784460544586,
          0.055189259350299835,
          0.06260224431753159,
          0.12489058077335358,
          0.20591586828231812,
          0.0434090681374073,
          0.15440593659877777,
          0.18663570284843445,
          0.24573707580566406,
          0.06372642517089844,
          0.08258385956287384,
          0.19792409241199493,
          0.2515448033809662,
          0.06472787261009216,
          0.13514427840709686,
          0.19998300075531006,
          0.21466009318828583,
          0.06836632639169693,
          0.2388867735862732,
          0.17477327585220337,
          0.2607870399951935,
          0.22833633422851562,
          0.008312484249472618,
          0.13603726029396057,
          0.1243312880396843,
          0.12505190074443817,
          0.12483720481395721,
          0.10621500015258789,
          0.09126518666744232,
          0.18621692061424255,
          0.22119490802288055,
          0.14095430076122284,
          0.1741936355829239,
          0.2382386028766632,
          0.167867511510849,
          0.1596597135066986,
          0.013166210614144802,
          0.1901608109474182,
          0.0898546427488327,
          0.036897528916597366,
          0.1375078558921814,
          0.18000705540180206,
          0.23543082177639008,
          0.2382979691028595,
          0.11171882599592209,
          0.22021132707595825,
          0.15130753815174103,
          0.1395675390958786,
          0.13274547457695007,
          0.10873721539974213,
          0.04973044618964195,
          0.11874887347221375,
          0.21993614733219147,
          0.11941845715045929,
          0.20956097543239594,
          0.038015685975551605,
          0.055960189551115036,
          0.22581970691680908,
          0.25074654817581177,
          0.20241647958755493,
          0.24264410138130188,
          0.1413177102804184,
          0.15536807477474213
        ],
        [
          0.02897464670240879,
          -0.04534522444009781,
          -0.1093781366944313,
          -0.10466064512729645,
          -0.04615698382258415,
          0.03487640991806984,
          0.13161006569862366,
          0.20447953045368195,
          -0.08226477354764938,
          -0.31402575969696045,
          0.06803595274686813,
          0.24721644818782806,
          -0.08710993826389313,
          0.005847281310707331,
          0.07497510313987732,
          0.06277292221784592,
          0.06195620447397232,
          -0.03756335377693176,
          -0.18127989768981934,
          0.21365788578987122,
          0.0015939316945150495,
          0.18076768517494202,
          -0.06943348795175552,
          -0.02026607282459736,
          0.050023533403873444,
          0.037689581513404846,
          -0.2158585637807846,
          -0.21021771430969238,
          0.16082090139389038,
          0.12866978347301483,
          0.16745907068252563,
          0.035216156393289566,
          -0.24691283702850342,
          -0.01468542031943798,
          0.044586893171072006,
          -0.1404634416103363,
          0.015669018030166626,
          0.21129754185676575,
          -0.06501120328903198,
          0.10131622850894928,
          0.16728132963180542,
          0.1283145248889923,
          0.05317777022719383,
          -0.09481897205114365,
          0.08132112771272659,
          0.019667664542794228,
          0.05618049576878548,
          0.14137153327465057,
          0.07822154462337494,
          0.11690009385347366,
          -0.039706237614154816,
          0.0899970605969429,
          0.12144441902637482,
          -0.20376433432102203,
          -0.1585042029619217,
          0.10097804665565491,
          0.14547783136367798,
          0.10058622062206268,
          0.08398749679327011,
          0.08088657259941101,
          0.02070392481982708,
          -0.016179131343960762,
          -0.06799891591072083,
          0.051884040236473083
        ],
        [
          0.22595012187957764,
          -0.11667583882808685,
          -0.18485116958618164,
          -0.1773708313703537,
          0.04021754860877991,
          0.150143101811409,
          0.24150212109088898,
          0.00134244782384485,
          0.009198760613799095,
          -0.034954849630594254,
          0.06267446279525757,
          0.2213638871908188,
          -0.0920620709657669,
          0.09074044972658157,
          0.08526720106601715,
          0.0195660088211298,
          0.14451588690280914,
          -0.12934251129627228,
          -0.06025063991546631,
          0.22911319136619568,
          0.10142810642719269,
          0.2279304713010788,
          -0.05545114725828171,
          -0.028293101117014885,
          0.16749069094657898,
          0.21184790134429932,
          -0.04257555678486824,
          -0.08318307995796204,
          0.22422122955322266,
          0.1769876480102539,
          0.11844413727521896,
          0.13618138432502747,
          -0.05570422112941742,
          0.1930914670228958,
          0.02402130886912346,
          -0.09609149396419525,
          0.012741463258862495,
          0.14381366968154907,
          0.17839203774929047,
          0.0922476127743721,
          0.16315768659114838,
          -0.06639228761196136,
          0.028885018080472946,
          0.02325804904103279,
          -0.0890183225274086,
          0.08607534319162369,
          0.08930612355470657,
          0.021477460861206055,
          0.158413365483284,
          -0.01256655529141426,
          -0.020273365080356598,
          0.11448344588279724,
          0.20126637816429138,
          -0.14150439202785492,
          -0.080873042345047,
          0.1350635588169098,
          0.2113586962223053,
          0.05887768045067787,
          0.15582649409770966,
          0.08795871585607529,
          0.12624764442443848,
          0.163823664188385,
          0.014489811845123768,
          0.22226421535015106
        ],
        [
          -0.07342910766601562,
          0.1716831922531128,
          0.2788928151130676,
          0.29007604718208313,
          0.06684863567352295,
          -0.037624750286340714,
          -0.11146443337202072,
          -0.0073765418492257595,
          0.23467545211315155,
          0.26541998982429504,
          0.10764806717634201,
          -0.026899870485067368,
          0.09006594121456146,
          0.26803848147392273,
          0.10426171869039536,
          0.22687847912311554,
          -0.09863394498825073,
          0.1674802154302597,
          0.08877363055944443,
          0.01179003156721592,
          0.26298752427101135,
          -0.006371235940605402,
          0.12283557653427124,
          0.1437593400478363,
          0.08941492438316345,
          -0.019643880426883698,
          0.11652661114931107,
          0.11003406345844269,
          -0.08443602174520493,
          0.017249787226319313,
          -0.07964561134576797,
          -0.07155480235815048,
          0.08461460471153259,
          0.13211578130722046,
          -0.2029399424791336,
          0.13703849911689758,
          0.031134633347392082,
          0.06044517457485199,
          0.011457731947302818,
          -0.1549796462059021,
          -0.052825842052698135,
          0.3226156234741211,
          0.07732311636209488,
          0.18635724484920502,
          0.11571047455072403,
          0.04578588530421257,
          0.0513199046254158,
          0.11710283160209656,
          -0.13081276416778564,
          0.07874968647956848,
          0.2098093181848526,
          -0.020104898139834404,
          -0.03291214257478714,
          0.14814096689224243,
          0.12878519296646118,
          -0.046223100274801254,
          -0.017876481637358665,
          0.010388337075710297,
          -0.1313307285308838,
          0.08546056598424911,
          0.23901383578777313,
          0.024442212656140327,
          -0.002692231209948659,
          -0.0198532622307539
        ],
        [
          0.019670289009809494,
          0.04848740994930267,
          -0.04052666947245598,
          -0.07220509648323059,
          -0.10718513280153275,
          -0.015864593908190727,
          0.10665875673294067,
          -0.15227696299552917,
          -0.03918508440256119,
          -0.09082134813070297,
          -0.006571381818503141,
          0.013638733886182308,
          -0.09950197488069534,
          -0.010709595866501331,
          0.025642722845077515,
          -0.007282668258994818,
          0.1434752643108368,
          -0.04688650369644165,
          -0.1807713359594345,
          -0.09363971650600433,
          -0.06103633716702461,
          0.06510084867477417,
          -0.030004164204001427,
          -0.08590612560510635,
          -0.04827895015478134,
          0.06314518302679062,
          -0.040025826543569565,
          -0.0886014923453331,
          0.12183870375156403,
          0.06433583796024323,
          -0.02261536195874214,
          0.0100474888458848,
          -0.0011298706522211432,
          -0.06223233789205551,
          0.029101204127073288,
          -0.017049359157681465,
          0.0026680901646614075,
          0.013535748235881329,
          -0.0872560366988182,
          0.10078020393848419,
          0.22282899916172028,
          -0.02267313376069069,
          -0.06972940266132355,
          -0.1866648942232132,
          -0.07185271382331848,
          0.006639467552304268,
          -0.06648372858762741,
          -0.05474378168582916,
          0.05303247272968292,
          0.06590522080659866,
          -0.07751638442277908,
          -0.005812264978885651,
          0.11127184331417084,
          -0.1384555697441101,
          -0.105815589427948,
          0.017351454123854637,
          0.03485943004488945,
          0.04710303619503975,
          0.17602667212486267,
          0.014672639779746532,
          -0.16708523035049438,
          0.004245712421834469,
          -0.06318023800849915,
          0.10232218354940414
        ],
        [
          0.19549860060214996,
          -0.154778853058815,
          -0.22205626964569092,
          -0.1679004728794098,
          0.14629143476486206,
          0.021319884806871414,
          0.11009693145751953,
          -0.013302956707775593,
          0.1737038940191269,
          0.09505967050790787,
          -0.07179314643144608,
          0.07481782883405685,
          -0.04797613248229027,
          0.06528233736753464,
          0.027282776311039925,
          0.0024876464158296585,
          0.24438808858394623,
          -0.06940208375453949,
          -0.04182707145810127,
          0.15476414561271667,
          0.027736179530620575,
          0.1507868766784668,
          0.0017456818604841828,
          0.07594431191682816,
          0.1584959775209427,
          0.1912354975938797,
          -0.21318607032299042,
          0.24267056584358215,
          -0.00025727739557623863,
          0.15648837387561798,
          0.14018382132053375,
          0.24227434396743774,
          0.14839304983615875,
          0.1218600943684578,
          0.17043368518352509,
          0.0040709455497562885,
          0.18297985196113586,
          0.15416644513607025,
          0.20155631005764008,
          0.20592980086803436,
          0.18407042324543,
          0.11020725965499878,
          0.17232123017311096,
          -0.029886625707149506,
          -0.053612664341926575,
          0.16625890135765076,
          0.04868564382195473,
          -0.03854486346244812,
          0.16502726078033447,
          0.06883575022220612,
          0.0028636681381613016,
          0.16528217494487762,
          0.12888562679290771,
          -0.19822269678115845,
          -0.08809076994657516,
          0.05209508538246155,
          0.0727720558643341,
          0.20100420713424683,
          0.24456898868083954,
          0.1680711954832077,
          0.12957295775413513,
          0.08322406560182571,
          0.19877581298351288,
          0.09443195909261703
        ],
        [
          -0.018758034333586693,
          0.24239997565746307,
          0.2273719757795334,
          0.07416875660419464,
          0.09043330699205399,
          -0.006613471545279026,
          -0.009988691657781601,
          -0.02936416305601597,
          0.17873424291610718,
          0.15946295857429504,
          0.15293081104755402,
          -0.010441803373396397,
          0.0451325848698616,
          0.093970388174057,
          0.03429166227579117,
          0.06838357448577881,
          -0.13772709667682648,
          0.29573488235473633,
          0.17961110174655914,
          -0.01600637659430504,
          0.2698180079460144,
          0.16497176885604858,
          0.2051992118358612,
          0.12082544714212418,
          0.1749173402786255,
          -0.12084195017814636,
          0.04952752962708473,
          0.033411238342523575,
          -0.0823400467634201,
          0.04132699966430664,
          -0.12442433834075928,
          -0.17517533898353577,
          0.21217596530914307,
          0.05657147243618965,
          -0.10368961840867996,
          0.037605948746204376,
          0.059803299605846405,
          0.11398689448833466,
          0.011115668341517448,
          -0.1752346307039261,
          -0.1582629531621933,
          0.20577210187911987,
          -0.04122071713209152,
          0.20988506078720093,
          0.16561686992645264,
          0.20107677578926086,
          0.20666223764419556,
          0.2934775948524475,
          -0.08983542025089264,
          0.07440086454153061,
          0.1503780484199524,
          0.08091853559017181,
          -0.1656421720981598,
          0.19248825311660767,
          0.2546941637992859,
          -0.16204960644245148,
          0.00032519293017685413,
          -0.14028862118721008,
          -0.25708380341529846,
          0.13765932619571686,
          0.1373106837272644,
          0.11062703281641006,
          0.050353601574897766,
          0.03770978003740311
        ],
        [
          0.17132103443145752,
          0.10241001844406128,
          0.08280365914106369,
          0.05121505260467529,
          0.22388890385627747,
          0.21293537318706512,
          0.2219221144914627,
          0.2143813967704773,
          0.26234036684036255,
          0.014658174477517605,
          0.0567043162882328,
          0.18894265592098236,
          0.02691425196826458,
          0.16558682918548584,
          0.10623184591531754,
          0.05699861794710159,
          0.12303152680397034,
          0.10745903104543686,
          0.2240656465291977,
          0.2418685257434845,
          0.08221405744552612,
          0.04305543750524521,
          0.19425664842128754,
          0.19483168423175812,
          0.16057473421096802,
          0.24264083802700043,
          -0.0020290904212743044,
          0.24000869691371918,
          0.05782885104417801,
          0.028466971591114998,
          0.04077189415693283,
          0.24750952422618866,
          0.19966760277748108,
          0.1286231130361557,
          0.2330431044101715,
          0.22013215720653534,
          0.07808839529752731,
          0.10288060456514359,
          0.25754278898239136,
          0.1789894700050354,
          0.1193484365940094,
          0.12889514863491058,
          0.10857324302196503,
          0.027538394555449486,
          0.07632779330015182,
          0.16248458623886108,
          0.2343102991580963,
          0.15967504680156708,
          0.12462125718593597,
          0.09233394265174866,
          0.07071298360824585,
          0.04649905487895012,
          0.18883837759494781,
          0.16875150799751282,
          0.08856157958507538,
          0.06919287145137787,
          0.10988181829452515,
          0.14869314432144165,
          0.24542900919914246,
          0.03340538963675499,
          0.19032326340675354,
          0.0492829754948616,
          0.0832534059882164,
          0.04315553233027458
        ],
        [
          0.2289046198129654,
          -0.026407260447740555,
          -0.09277226775884628,
          -0.09884113818407059,
          0.04976904019713402,
          0.010934724472463131,
          0.18942870199680328,
          0.13646654784679413,
          0.2261863499879837,
          -0.10682767629623413,
          -0.004644615575671196,
          0.09288911521434784,
          -0.06409651041030884,
          0.1846933513879776,
          0.12014895677566528,
          0.18206973373889923,
          0.19954359531402588,
          -0.037251975387334824,
          -0.10206501930952072,
          0.11312098056077957,
          0.12573648989200592,
          0.2197813242673874,
          -0.1744130551815033,
          0.14539532363414764,
          0.03859887272119522,
          0.009524627588689327,
          -0.2527562975883484,
          -0.09018444269895554,
          0.19646698236465454,
          0.04330151155591011,
          0.10131042450666428,
          0.06610427796840668,
          -0.0548226460814476,
          0.0177324078977108,
          0.19234248995780945,
          0.010040936060249805,
          0.24270164966583252,
          0.09227300435304642,
          0.073370061814785,
          0.11880078166723251,
          0.04737277701497078,
          0.13166417181491852,
          0.07833439856767654,
          -0.08925624936819077,
          -0.00037691736361011863,
          0.03433578088879585,
          0.23845712840557098,
          0.19050194323062897,
          0.1750652939081192,
          0.07821114361286163,
          0.13871058821678162,
          0.20865707099437714,
          0.21299132704734802,
          -0.15938790142536163,
          -0.027694951742887497,
          0.07445081323385239,
          0.154366135597229,
          0.21945273876190186,
          0.12103491276502609,
          0.08831603825092316,
          0.04761999472975731,
          0.1212301179766655,
          0.07873988151550293,
          0.22706739604473114
        ],
        [
          0.05679018422961235,
          -0.06375119835138321,
          -0.06430695205926895,
          0.0008460874087177217,
          0.15616902709007263,
          0.08523671329021454,
          -0.04319299757480621,
          7.666184683330357e-05,
          0.1133914664387703,
          0.08437206596136093,
          0.027997000142931938,
          0.07475423067808151,
          0.03976033627986908,
          -0.03616286441683769,
          0.031227432191371918,
          0.00624035345390439,
          0.18289898335933685,
          0.04365602508187294,
          0.09589046984910965,
          -0.07125229388475418,
          0.006472228094935417,
          0.09644032269716263,
          -0.025020889937877655,
          0.123661108314991,
          0.14953356981277466,
          -0.01132121030241251,
          0.003928827587515116,
          0.164393812417984,
          -0.026118747889995575,
          -0.01838134415447712,
          0.1994783580303192,
          0.07052108645439148,
          0.16236934065818787,
          0.05455337092280388,
          -0.03435184061527252,
          0.046301405876874924,
          0.04820471629500389,
          0.0162741020321846,
          0.1199849545955658,
          -0.00979009922593832,
          -0.01407548226416111,
          -0.00869954377412796,
          -0.002970515750348568,
          -0.02512201853096485,
          -0.012139233760535717,
          0.06371742486953735,
          0.10378452390432358,
          0.005726838484406471,
          0.08082015067338943,
          -0.008955582976341248,
          0.007254476193338633,
          0.11389146745204926,
          0.06782783567905426,
          -0.05521148815751076,
          -0.006496612448245287,
          0.048311326652765274,
          0.150373637676239,
          0.014483200386166573,
          0.191228449344635,
          0.0012344131246209145,
          0.003902482334524393,
          0.015879379585385323,
          0.12391842156648636,
          -0.006922902073711157
        ],
        [
          -0.19107797741889954,
          0.09208446741104126,
          0.27469587326049805,
          0.15483666956424713,
          0.2106715589761734,
          -0.010571939870715141,
          0.11744159460067749,
          0.10001350194215775,
          0.09303988516330719,
          0.2634347677230835,
          0.19030097126960754,
          -0.021371377632021904,
          0.1356683075428009,
          0.1965285837650299,
          0.03777843341231346,
          0.006215698551386595,
          -0.058708637952804565,
          0.23144985735416412,
          0.1522633135318756,
          0.11821302771568298,
          0.1281990259885788,
          -0.04209735244512558,
          0.11845020949840546,
          0.04285368695855141,
          0.11261309683322906,
          0.00416936818510294,
          0.062356140464544296,
          0.08250492811203003,
          0.07271277904510498,
          0.1565263718366623,
          -0.2078869342803955,
          -0.006491752807050943,
          0.04914088174700737,
          -0.02141769789159298,
          -0.05627219378948212,
          0.26964372396469116,
          -0.052852414548397064,
          0.1164180114865303,
          -0.07267230749130249,
          -0.2618381381034851,
          -0.014726245775818825,
          0.1880202740430832,
          0.07139521092176437,
          0.07395240664482117,
          0.13826030492782593,
          0.20138400793075562,
          0.21829506754875183,
          0.23897787928581238,
          0.1197919100522995,
          0.2659452259540558,
          0.21847833693027496,
          0.00026626980979926884,
          -0.13730484247207642,
          0.12452176958322525,
          0.2328941375017166,
          -0.08588602393865585,
          -0.09072473645210266,
          -0.10139992833137512,
          -0.12632395327091217,
          0.0769689679145813,
          0.2048587203025818,
          0.07105865329504013,
          0.16946695744991302,
          0.05289926379919052
        ],
        [
          0.25798049569129944,
          -0.17164373397827148,
          -0.10748884081840515,
          -0.192580908536911,
          0.09060860425233841,
          0.026891961693763733,
          0.1720096617937088,
          -0.029303358867764473,
          0.012474377639591694,
          -0.06896156817674637,
          -0.08733435720205307,
          0.14122170209884644,
          -0.043551474809646606,
          0.10488323122262955,
          0.1186896562576294,
          0.13254500925540924,
          0.1145089790225029,
          -0.022858094424009323,
          -0.015828415751457214,
          0.0231581162661314,
          -0.0220087431371212,
          0.19828449189662933,
          -0.054126281291246414,
          -0.028525248169898987,
          0.14372341334819794,
          0.013758772052824497,
          -0.09390418976545334,
          0.010515876114368439,
          0.05978289619088173,
          0.16670341789722443,
          0.20494095981121063,
          0.24514999985694885,
          0.13337932527065277,
          0.08601666241884232,
          0.26474425196647644,
          -0.008954988792538643,
          -0.008198712952435017,
          0.11983217298984528,
          0.0153487054631114,
          0.1146000474691391,
          0.18545982241630554,
          0.015223736874759197,
          0.19841107726097107,
          -0.11324851214885712,
          -0.11711567640304565,
          0.17555013298988342,
          -0.024708934128284454,
          -0.07010342925786972,
          0.25901779532432556,
          0.13004767894744873,
          6.544290954479948e-05,
          0.08679591864347458,
          0.23990978300571442,
          -0.14174853265285492,
          -0.1536150723695755,
          0.17753081023693085,
          0.19949479401111603,
          0.10987347364425659,
          0.30283114314079285,
          0.20452873408794403,
          0.012848660349845886,
          0.0951380506157875,
          0.16493457555770874,
          0.07543133944272995
        ],
        [
          -0.08617456257343292,
          0.010391469113528728,
          -0.001977902138605714,
          -0.007858792319893837,
          0.02276703715324402,
          0.0219821035861969,
          -0.17189228534698486,
          -0.01880970038473606,
          -0.08312467485666275,
          -0.04000534862279892,
          0.022176701575517654,
          -0.11486773937940598,
          -0.010779381729662418,
          -0.10540331900119781,
          0.038082730025053024,
          -0.029556576162576675,
          0.011397797614336014,
          0.037531960755586624,
          -0.09866832941770554,
          -0.024654708802700043,
          -0.09359277039766312,
          -0.00468831742182374,
          -0.016485072672367096,
          -0.11686428636312485,
          -0.04965182766318321,
          -0.04634231701493263,
          -0.044778551906347275,
          0.016876501962542534,
          0.030275864526629448,
          0.009451579302549362,
          -0.07267587631940842,
          -0.02564011886715889,
          -0.011040405370295048,
          -0.01308397389948368,
          -0.13039027154445648,
          -0.09923248738050461,
          -0.010099395178258419,
          -0.13581416010856628,
          -0.0354062058031559,
          -0.04079102352261543,
          -0.10801660269498825,
          -0.0836104080080986,
          -0.039845749735832214,
          -0.0004327257047407329,
          -0.07488656789064407,
          -0.047578029334545135,
          0.03730899840593338,
          -0.0898161455988884,
          -0.023025361821055412,
          0.009752970188856125,
          -0.0033876830711960793,
          -0.15629275143146515,
          -0.01001201942563057,
          -0.11518800258636475,
          0.0003963314229622483,
          -0.11255906522274017,
          0.008258329704403877,
          -0.016281496733427048,
          -0.058725904673337936,
          -0.019891534000635147,
          -0.14900518953800201,
          0.01781679131090641,
          -0.05700802803039551,
          0.04922740161418915
        ],
        [
          -0.07712996751070023,
          0.01795235276222229,
          0.029365263879299164,
          -0.08099459111690521,
          -0.06367215514183044,
          -0.061415016651153564,
          -0.0738164633512497,
          -0.024061977863311768,
          0.044064052402973175,
          -0.08808869868516922,
          0.01207879651337862,
          0.02820383943617344,
          -0.07727980613708496,
          0.04747277498245239,
          -0.022696111351251602,
          -0.0986844077706337,
          -0.0015322909457609057,
          0.03006402775645256,
          -0.049104392528533936,
          0.002341597806662321,
          -0.024343978613615036,
          -0.06501363962888718,
          -0.029174573719501495,
          -0.023961424827575684,
          -0.1802404522895813,
          0.012106688693165779,
          -0.13576257228851318,
          0.05449385195970535,
          -0.08671336621046066,
          -0.061070408672094345,
          -0.03262307122349739,
          -0.127105712890625,
          -0.1185372993350029,
          -0.097748763859272,
          0.025612369179725647,
          -0.06456136703491211,
          -0.1219075620174408,
          -0.14318108558654785,
          -0.12299206852912903,
          -0.15026068687438965,
          0.006823441945016384,
          -0.0016636279178783298,
          -0.08671253174543381,
          -0.040391795337200165,
          -0.04304400831460953,
          -0.07135111093521118,
          0.029950516298413277,
          -0.08830557763576508,
          -0.12289468199014664,
          0.010996056720614433,
          -0.0456976480782032,
          0.0536823533475399,
          -0.06696287542581558,
          -0.08913519978523254,
          0.07456696778535843,
          -0.10351510345935822,
          -0.08634774386882782,
          -0.048733584582805634,
          -0.08221065253019333,
          -0.08596715331077576,
          -0.05146470665931702,
          -0.000574747275095433,
          0.030463529750704765,
          -0.08260651677846909
        ],
        [
          0.14607179164886475,
          -0.14029565453529358,
          -0.18336251378059387,
          -0.13735312223434448,
          0.10346722602844238,
          0.17549075186252594,
          0.2304079681634903,
          0.08403926342725754,
          0.08003541082143784,
          -0.14748643338680267,
          -0.031767379492521286,
          0.228260338306427,
          0.16941174864768982,
          0.06509610265493393,
          0.15234632790088654,
          0.032513588666915894,
          0.09667843580245972,
          0.016796842217445374,
          -0.1566796451807022,
          0.19289836287498474,
          0.07990387082099915,
          0.2614426910877228,
          -0.045615725219249725,
          0.192636176943779,
          0.0711633563041687,
          0.1554328054189682,
          -0.23132285475730896,
          0.04395577311515808,
          0.02478112280368805,
          0.19021020829677582,
          0.11662641912698746,
          0.16534098982810974,
          0.020304031670093536,
          0.02736765705049038,
          0.03684169426560402,
          -0.04093056172132492,
          0.01727411337196827,
          0.013116966001689434,
          0.21437598764896393,
          0.10573261231184006,
          0.10651706159114838,
          0.15606753528118134,
          0.15202820301055908,
          -0.0965098962187767,
          -0.07550250738859177,
          0.0339776836335659,
          0.07653671503067017,
          0.12959954142570496,
          0.2505323886871338,
          0.05018952861428261,
          -0.04159129038453102,
          0.15781395137310028,
          0.22013574838638306,
          -0.24166148900985718,
          -0.13496606051921844,
          0.248103067278862,
          0.24854151904582977,
          0.16768953204154968,
          0.23276032507419586,
          0.12409340590238571,
          0.08666419237852097,
          -0.020573129877448082,
          0.17057661712169647,
          0.23199185729026794
        ],
        [
          0.12145226448774338,
          -0.15139341354370117,
          -0.16259285807609558,
          -0.07152599096298218,
          0.022686250507831573,
          0.1978681981563568,
          0.1348714679479599,
          0.2058476209640503,
          0.14993615448474884,
          -0.1366959661245346,
          0.025876984000205994,
          0.20394277572631836,
          -0.055063143372535706,
          0.12397567182779312,
          0.15269999206066132,
          0.05593421682715416,
          -0.01675557717680931,
          -0.01986437663435936,
          -0.06784364581108093,
          0.1163429543375969,
          0.048508983105421066,
          0.1584116518497467,
          -0.042270056903362274,
          -0.0736336037516594,
          -0.07075124233961105,
          0.1627615988254547,
          -0.09399095922708511,
          -0.028310656547546387,
          -0.023103976622223854,
          -0.02788388542830944,
          0.1411316990852356,
          0.18777593970298767,
          -0.017102142795920372,
          -0.07516565918922424,
          -0.014994953759014606,
          -0.05168415978550911,
          0.02514682523906231,
          0.057837918400764465,
          0.10866869986057281,
          0.2259860336780548,
          0.016442522406578064,
          0.09096673130989075,
          0.11040951311588287,
          -0.01959615759551525,
          -0.11855857819318771,
          0.11974479258060455,
          0.04049386456608772,
          0.042354192584753036,
          0.25427156686782837,
          -0.04106302931904793,
          0.024023987352848053,
          0.1465311050415039,
          0.20546381175518036,
          -0.15856096148490906,
          -0.14159929752349854,
          0.19550901651382446,
          -0.04916507378220558,
          0.09790726006031036,
          0.18643519282341003,
          0.024763287976384163,
          -0.008206984028220177,
          0.14864540100097656,
          -0.10751212388277054,
          -0.011810901574790478
        ],
        [
          0.060686808079481125,
          0.04450918734073639,
          -0.139075368642807,
          0.013795682229101658,
          0.1319485455751419,
          0.05640605837106705,
          0.15349914133548737,
          0.1688115894794464,
          0.0936354547739029,
          -0.23002107441425323,
          -0.059830840677022934,
          0.1370588093996048,
          -0.10565803945064545,
          0.06555448472499847,
          0.26120054721832275,
          0.08182675391435623,
          0.15278974175453186,
          -0.0465783029794693,
          -0.17489290237426758,
          0.12100937217473984,
          0.05569601431488991,
          0.04617941007018089,
          -0.09387052059173584,
          -0.010186864994466305,
          0.1573786586523056,
          0.01633358560502529,
          -0.24282518029212952,
          0.020136546343564987,
          0.20152880251407623,
          0.0037666703574359417,
          0.13663829863071442,
          0.13933490216732025,
          0.0434437058866024,
          0.07866303622722626,
          0.23730184137821198,
          0.13809256255626678,
          0.23970353603363037,
          0.20984305441379547,
          0.10354993492364883,
          0.12822359800338745,
          0.028735801577568054,
          -0.04038833826780319,
          0.164754718542099,
          -0.003114658407866955,
          -0.06932000815868378,
          0.09274272620677948,
          0.10018692165613174,
          -0.022727521136403084,
          0.1274878829717636,
          0.07718405872583389,
          0.12999467551708221,
          0.08721768856048584,
          0.09967347979545593,
          -0.2586173117160797,
          -0.12024219334125519,
          0.20487362146377563,
          0.08169678598642349,
          0.06766694784164429,
          0.29952916502952576,
          0.21524803340435028,
          0.11011030524969101,
          0.1798119693994522,
          0.03957397863268852,
          0.03585365414619446
        ],
        [
          0.033859968185424805,
          0.02298227697610855,
          -0.1978614330291748,
          -0.043542757630348206,
          -0.15744130313396454,
          0.17603148519992828,
          0.16664743423461914,
          0.12026398628950119,
          -0.04267781600356102,
          -0.10963188856840134,
          -0.05446835607290268,
          0.15410998463630676,
          0.017578070983290672,
          0.12998522818088531,
          0.19390924274921417,
          0.1662180870771408,
          0.14230786263942719,
          0.028776759281754494,
          -0.17991657555103302,
          0.17369171977043152,
          0.08239557594060898,
          0.2426837980747223,
          0.006979478523135185,
          -0.04603065550327301,
          0.08964885771274567,
          0.12415927648544312,
          0.028652511537075043,
          -0.14466162025928497,
          0.06118020787835121,
          0.037351083010435104,
          0.16001006960868835,
          0.20090293884277344,
          0.006611157674342394,
          -0.022432005032896996,
          0.19894397258758545,
          0.09343934059143066,
          0.15409249067306519,
          0.1161557137966156,
          0.11291421949863434,
          0.025712640956044197,
          0.272247850894928,
          0.08523038774728775,
          0.10805729031562805,
          -0.015395820140838623,
          0.026468535885214806,
          -0.08462654799222946,
          0.0488075390458107,
          0.018162155523896217,
          0.12241729348897934,
          0.017622364684939384,
          0.06339716911315918,
          0.04908249154686928,
          0.23633188009262085,
          -0.16028591990470886,
          -0.10567998141050339,
          0.032083917409181595,
          0.11031830310821533,
          0.12080682814121246,
          0.21104957163333893,
          0.12339938431978226,
          0.11828583478927612,
          0.10201480239629745,
          -0.02086062729358673,
          0.1981530636548996
        ],
        [
          0.18034081161022186,
          0.19703364372253418,
          0.17142289876937866,
          0.03010551631450653,
          0.047101523727178574,
          0.20922738313674927,
          0.0275858286768198,
          0.19310824573040009,
          0.2534652352333069,
          0.2311674803495407,
          0.16173453629016876,
          0.14622214436531067,
          0.24910041689872742,
          0.007405676878988743,
          0.08228275924921036,
          0.02331840619444847,
          0.004514726810157299,
          0.10436878353357315,
          0.1481505185365677,
          0.16446174681186676,
          0.08404265344142914,
          0.05319751426577568,
          0.06489279121160507,
          0.22715431451797485,
          0.24538318812847137,
          0.1575843095779419,
          0.04961465671658516,
          0.051382921636104584,
          0.17727206647396088,
          0.1840360015630722,
          -0.01458952110260725,
          0.2128007858991623,
          0.24628235399723053,
          0.2344394475221634,
          0.03486698493361473,
          0.10870945453643799,
          0.07854735851287842,
          0.1254224330186844,
          0.00786146242171526,
          0.11103933304548264,
          0.14625242352485657,
          0.05885184183716774,
          0.07213294506072998,
          0.07347534596920013,
          0.0904630571603775,
          0.1281036138534546,
          0.18970374763011932,
          0.25135207176208496,
          0.10445913672447205,
          0.19627873599529266,
          0.1158813089132309,
          0.07755705714225769,
          0.10842929035425186,
          0.18373525142669678,
          0.19687587022781372,
          0.035860296338796616,
          0.06942925602197647,
          0.06829583644866943,
          0.07633326202630997,
